{
    "sites": {
        "net_guide.net.0.weight.loc": [
            0.30651038885116577,
            0.2776370048522949,
            -0.5132399797439575,
            -0.23362983763217926,
            -0.11206824332475662,
            -0.03842736408114433,
            0.21363255381584167,
            -0.17906303703784943,
            -0.15918724238872528,
            0.306238055229187,
            -0.2683340609073639,
            0.16464507579803467,
            0.34031715989112854,
            0.13772493600845337,
            0.4718437194824219,
            -0.12675125896930695,
            -0.0123797208070755,
            0.45905083417892456,
            -0.41071853041648865,
            -0.08688759803771973,
            0.33729317784309387,
            -0.05800173804163933,
            0.20385463535785675,
            0.24024911224842072,
            -0.058209288865327835,
            0.4381103813648224,
            -0.2732279896736145,
            -0.2191028743982315,
            -0.43624019622802734,
            0.06768811494112015,
            -0.28707510232925415,
            0.008661994710564613
        ],
        "net_guide.net.0.weight.scale": [
            0.004266360774636269,
            0.004273026715964079,
            0.003778724931180477,
            0.004291393794119358,
            0.0040999348275363445,
            0.004149019252508879,
            0.004026386886835098,
            0.004309849813580513,
            0.003960802219808102,
            0.003850986948236823,
            0.004244792275130749,
            0.004159601405262947,
            0.004277748055756092,
            0.0038872321601957083,
            0.004253377206623554,
            0.004242489580065012,
            0.004289343953132629,
            0.004298000130802393,
            0.0038388315588235855,
            0.004167226608842611,
            0.0043187616392970085,
            0.004190484527498484,
            0.0039045943412929773,
            0.004317223560065031,
            0.004314130637794733,
            0.004262395668774843,
            0.004031168296933174,
            0.004276704043149948,
            0.004269057419151068,
            0.004177058581262827,
            0.003872455796226859,
            0.004076576791703701
        ],
        "net_guide.net.0.bias.loc": [
            -0.370442658662796,
            -0.35644322633743286,
            -0.2981063723564148,
            0.9980725049972534,
            -0.17422042787075043,
            0.43024396896362305,
            -0.30053672194480896,
            0.10979928821325302,
            -0.7248204946517944,
            -1.3446804285049438,
            -0.3287532329559326,
            0.7272819876670837,
            0.4658471941947937,
            0.6165850758552551,
            0.49093279242515564,
            0.45526033639907837,
            0.015761487185955048,
            0.5821476578712463,
            -0.43405693769454956,
            -0.39361342787742615,
            -0.2740408778190613,
            -0.2602824568748474,
            0.2798609733581543,
            0.313767671585083,
            -0.6024743318557739,
            -0.5305929780006409,
            0.38508957624435425,
            0.5072119832038879,
            0.5420694947242737,
            -0.52112877368927,
            0.2968981862068176,
            0.3728256821632385
        ],
        "net_guide.net.0.bias.scale": [
            0.004314095713198185,
            0.004313355311751366,
            0.0043034120462834835,
            0.004313151817768812,
            0.004313854966312647,
            0.00431069266051054,
            0.004307170864194632,
            0.00431441655382514,
            0.004305284004658461,
            0.004304567351937294,
            0.0043118540197610855,
            0.004304826259613037,
            0.004313095938414335,
            0.004292862955480814,
            0.00431314529851079,
            0.00431545777246356,
            0.004313694778829813,
            0.00431394949555397,
            0.004310998599976301,
            0.004311009310185909,
            0.004314638674259186,
            0.00431053014472127,
            0.004299986641854048,
            0.004314589314162731,
            0.004314692225307226,
            0.004313386045396328,
            0.004311827477067709,
            0.004315040074288845,
            0.0043143220245838165,
            0.004312540870159864,
            0.004306834191083908,
            0.004311115946620703
        ],
        "net_guide.net.2.weight.loc": [
            -0.22921712696552277,
            -0.31229594349861145,
            0.772426187992096,
            0.1746794879436493,
            -0.2790488302707672,
            0.28060102462768555,
            -0.7107737064361572,
            -0.01855778507888317,
            -1.0394302606582642,
            1.203136920928955,
            0.36747312545776367,
            -0.40223827958106995,
            0.24084711074829102,
            -0.7448902130126953,
            0.30067387223243713,
            0.29959580302238464,
            -0.1254221498966217,
            0.15388357639312744,
            -0.5896918773651123,
            -0.23304206132888794,
            -0.1415749043226242,
            -0.15542717278003693,
            0.8149883151054382,
            0.057314012199640274,
            -0.009758340194821358,
            -0.28226545453071594,
            -0.4231553375720978,
            0.22758594155311584,
            -0.11082665622234344,
            -0.2049984633922577,
            -0.5101444721221924,
            -0.28929367661476135
        ],
        "net_guide.net.2.weight.scale": [
            0.004278133623301983,
            0.00428669573739171,
            0.004174933768808842,
            0.004219590686261654,
            0.0043053291738033295,
            0.004307887516915798,
            0.004301594104617834,
            0.004286867566406727,
            0.004313522018492222,
            0.00430830055847764,
            0.004294578917324543,
            0.004284082446247339,
            0.004234774969518185,
            0.004292386118322611,
            0.0041571008041501045,
            0.004290587268769741,
            0.004313596058636904,
            0.0041574775241315365,
            0.004202789627015591,
            0.0043128617107868195,
            0.004255578387528658,
            0.004313747864216566,
            0.00428973650559783,
            0.004269114229828119,
            0.004314136691391468,
            0.004241761285811663,
            0.0042269593104720116,
            0.0042631784453988075,
            0.004077047109603882,
            0.004314412362873554,
            0.004225459881126881,
            0.004308805800974369
        ],
        "net_guide.net.2.bias.loc": [
            0.03833300620317459
        ],
        "net_guide.net.2.bias.scale": [
            0.004281523637473583
        ],
        "likelihood_guide.likelihood._scale.loc": [
            -0.4045175611972809
        ],
        "likelihood_guide.likelihood._scale.scale": [
            0.006551189813762903
        ]
    },
    "mean_weight_scale": 0.004240419499614497,
    "min_weight_scale": 0.003778724931180477,
    "max_weight_scale": 0.0043187616392970085
}