{
    "sites": {
        "net_guide.net.0.weight.loc": [
            -0.029381906613707542,
            0.32958322763442993,
            0.5040086507797241,
            -0.1582445353269577,
            0.41225242614746094,
            0.2934354245662689,
            0.2385503500699997,
            -0.16568338871002197,
            -0.12001356482505798,
            0.1447758972644806,
            -0.13988779485225677,
            0.20368392765522003,
            0.6786761283874512,
            -0.31676915287971497,
            -0.0264559518545866,
            -0.12565799057483673,
            -0.24688561260700226,
            0.2908330261707306,
            -0.03348156064748764,
            -0.3635912239551544,
            -0.15013501048088074,
            0.33198025822639465,
            -0.33494797348976135,
            -0.16890506446361542,
            0.052861813455820084,
            0.3903557360172272,
            -0.22545358538627625,
            0.3168318271636963,
            -0.5075128078460693,
            -0.11264002323150635,
            -0.5859054923057556,
            -0.12805984914302826
        ],
        "net_guide.net.0.weight.scale": [
            0.004291976802051067,
            0.0030079754069447517,
            0.0038502616807818413,
            0.003629191778600216,
            0.004017899744212627,
            0.004256625659763813,
            0.004293589852750301,
            0.0036794976331293583,
            0.003946137614548206,
            0.0042099482379853725,
            0.0036556751001626253,
            0.003995735198259354,
            0.00428183376789093,
            0.003440509084612131,
            0.004297811537981033,
            0.0029624709859490395,
            0.003617294831201434,
            0.0039485301822423935,
            0.004169031511992216,
            0.0042754970490932465,
            0.00371030205860734,
            0.004210222978144884,
            0.004175043199211359,
            0.004301376640796661,
            0.0033786839339882135,
            0.004300995264202356,
            0.004314805381000042,
            0.004312403034418821,
            0.004165842197835445,
            0.003063892014324665,
            0.004261832684278488,
            0.0042974138632416725
        ],
        "net_guide.net.0.bias.loc": [
            0.20026171207427979,
            -1.402039647102356,
            0.7297058701515198,
            -0.7064884901046753,
            -0.5087407827377319,
            0.43320223689079285,
            0.35654526948928833,
            -0.739242434501648,
            -0.5327633023262024,
            -0.20259913802146912,
            -0.6188170313835144,
            0.8993279933929443,
            -0.638045608997345,
            -0.4853006601333618,
            0.34293368458747864,
            -0.9605681896209717,
            -1.0914108753204346,
            -0.3985708951950073,
            0.42329180240631104,
            -0.49467048048973083,
            0.6284059882164001,
            -0.4306354224681854,
            0.4796929955482483,
            0.252179890871048,
            0.39860066771507263,
            0.24309326708316803,
            0.32150745391845703,
            -0.3635994493961334,
            -0.7613672614097595,
            -0.8553270101547241,
            0.7574522495269775,
            0.19043026864528656
        ],
        "net_guide.net.0.bias.scale": [
            0.004314332269132137,
            0.004279111046344042,
            0.004305638838559389,
            0.004297477658838034,
            0.004307859111577272,
            0.004313929006457329,
            0.004314075224101543,
            0.004302014596760273,
            0.004305244889110327,
            0.0043115620501339436,
            0.0042999517172575,
            0.004308935254812241,
            0.004313554614782333,
            0.004284127149730921,
            0.004314700607210398,
            0.004283071029931307,
            0.004301118198782206,
            0.004310900345444679,
            0.004312814213335514,
            0.004314410500228405,
            0.0042962851002812386,
            0.004311852157115936,
            0.0043093301355838776,
            0.00431277509778738,
            0.00429121358320117,
            0.00431435089558363,
            0.004313813988119364,
            0.004314606077969074,
            0.00431014783680439,
            0.004286244045943022,
            0.004314793273806572,
            0.004314229357987642
        ],
        "net_guide.net.2.weight.loc": [
            -0.03310037776827812,
            1.639231562614441,
            0.6660978198051453,
            -0.9744023084640503,
            -0.5859043002128601,
            0.1975862830877304,
            0.21145550906658173,
            -0.9692893028259277,
            -0.7526897192001343,
            -0.40619686245918274,
            -0.9545091986656189,
            -0.5822588801383972,
            -0.1502702832221985,
            1.1313633918762207,
            0.04158201813697815,
            1.7845559120178223,
            -1.0461488962173462,
            -0.6213430762290955,
            0.19788619875907898,
            0.32466739416122437,
            0.6779263019561768,
            -0.3500642478466034,
            -0.3599628806114197,
            -0.18972736597061157,
            0.49691301584243774,
            0.12172805517911911,
            -0.11070852726697922,
            -0.09377742558717728,
            0.3745664060115814,
            1.586785912513733,
            -0.22960342466831207,
            -0.14882682263851166
        ],
        "net_guide.net.2.weight.scale": [
            0.004310850985348225,
            0.004300837405025959,
            0.004041125997900963,
            0.004311644472181797,
            0.00422758050262928,
            0.004229737911373377,
            0.004261267837136984,
            0.004311212804168463,
            0.00431303633376956,
            0.004307495430111885,
            0.004312433768063784,
            0.004234492313116789,
            0.004014408681541681,
            0.0042684427462518215,
            0.004304347559809685,
            0.004314422607421875,
            0.0043063536286354065,
            0.004277519881725311,
            0.004302568733692169,
            0.004228169098496437,
            0.004270914010703564,
            0.004261832684278488,
            0.004173074848949909,
            0.004283814691007137,
            0.0043054562993347645,
            0.0041772834956645966,
            0.00425284169614315,
            0.004253091290593147,
            0.004176490940153599,
            0.004314453806728125,
            0.003860587952658534,
            0.004298840649425983
        ],
        "net_guide.net.2.bias.loc": [
            -0.42404457926750183
        ],
        "net_guide.net.2.bias.scale": [
            0.004265282768756151
        ],
        "likelihood_guide.likelihood._scale.loc": [
            -0.6891078948974609
        ],
        "likelihood_guide.likelihood._scale.scale": [
            0.010869746096432209
        ]
    },
    "mean_weight_scale": 0.004166770006347562,
    "min_weight_scale": 0.0029624709859490395,
    "max_weight_scale": 0.004314805381000042
}