{
    "sites": {
        "net_guide.net.0.weight.loc": [
            -0.0876648798584938,
            -0.22005312144756317,
            -0.04978093132376671,
            0.2405765950679779,
            -0.037582866847515106,
            -0.549761176109314,
            -0.12552416324615479,
            0.40043455362319946,
            -0.12581183016300201,
            -0.365552693605423,
            0.4533824622631073,
            0.2337809056043625,
            0.8797735571861267,
            -0.6239081025123596,
            0.3211815655231476,
            -0.12242576479911804,
            -0.4548873007297516,
            -0.13992807269096375,
            -0.32822591066360474,
            -0.31466221809387207,
            0.35588112473487854,
            0.6136219501495361,
            -0.23820118606090546,
            0.08975354582071304,
            0.08994816988706589,
            -0.22492581605911255,
            0.16309456527233124,
            -0.6698626279830933,
            -0.0826864242553711,
            -0.36385688185691833,
            -0.17952163517475128,
            0.3589661419391632
        ],
        "net_guide.net.0.weight.scale": [
            0.09569953382015228,
            0.0960850641131401,
            0.09842241555452347,
            0.09623651206493378,
            0.09441374987363815,
            0.09554947167634964,
            0.0966419205069542,
            0.09691518545150757,
            0.09569407999515533,
            0.09566807001829147,
            0.0974489077925682,
            0.09523186832666397,
            0.09848576784133911,
            0.0965922400355339,
            0.09466606378555298,
            0.09612472355365753,
            0.09558932483196259,
            0.09584130346775055,
            0.09628087282180786,
            0.0951952263712883,
            0.09603982418775558,
            0.09564170986413956,
            0.0970803052186966,
            0.096678726375103,
            0.09812366217374802,
            0.09421440958976746,
            0.0951329916715622,
            0.09659518301486969,
            0.0971386507153511,
            0.09590288251638412,
            0.09547951072454453,
            0.09362313151359558
        ],
        "net_guide.net.0.bias.loc": [
            -0.5563617944717407,
            0.001717117615044117,
            -0.2822607159614563,
            -0.29543575644493103,
            -0.053232450038194656,
            0.018164440989494324,
            -0.45645344257354736,
            0.11903649568557739,
            -0.6786148548126221,
            0.7373443841934204,
            -0.09839708358049393,
            0.7282906174659729,
            -0.23411233723163605,
            -0.5220600366592407,
            0.25332319736480713,
            -0.13235415518283844,
            -0.4123205542564392,
            0.08015025407075882,
            -0.05815550312399864,
            0.17612875998020172,
            0.30106502771377563,
            0.058145154267549515,
            -0.6540738940238953,
            -0.14319030940532684,
            0.1271887570619583,
            0.1888151913881302,
            0.08263526856899261,
            -0.22944258153438568,
            0.2932133078575134,
            -0.13378822803497314,
            0.18455877900123596,
            0.29125863313674927
        ],
        "net_guide.net.0.bias.scale": [
            0.10477334260940552,
            0.10131237655878067,
            0.09713710099458694,
            0.10467351973056793,
            0.0965859517455101,
            0.09861914068460464,
            0.10104148089885712,
            0.10142026096582413,
            0.10333114862442017,
            0.1018219143152237,
            0.10302861779928207,
            0.09679453074932098,
            0.103692427277565,
            0.10419820994138718,
            0.09969638288021088,
            0.09419192373752594,
            0.097706139087677,
            0.09610002487897873,
            0.10071010887622833,
            0.10361507534980774,
            0.0982779935002327,
            0.09763599932193756,
            0.10394160449504852,
            0.1019984558224678,
            0.09522844105958939,
            0.09585010260343552,
            0.09407203644514084,
            0.10327807068824768,
            0.10372380167245865,
            0.10408330708742142,
            0.09847628325223923,
            0.09369838237762451
        ],
        "net_guide.net.2.weight.loc": [
            0.0209739338606596,
            -0.2541833519935608,
            0.40045270323753357,
            0.14159752428531647,
            -0.5850316286087036,
            -0.26036977767944336,
            0.2323113977909088,
            -0.21145352721214294,
            -0.07822784036397934,
            0.16774800419807434,
            -0.07725226879119873,
            0.30121174454689026,
            -0.003960400819778442,
            -0.007584432139992714,
            -0.41956284642219543,
            0.35267195105552673,
            0.1689610779285431,
            0.41349825263023376,
            -0.17150703072547913,
            0.034487396478652954,
            0.08490649610757828,
            -0.22881028056144714,
            -0.1283903270959854,
            -0.08252498507499695,
            0.2506260573863983,
            -0.26045915484428406,
            0.37759482860565186,
            0.02983798459172249,
            0.024018818512558937,
            -0.018534695729613304,
            0.33057087659835815,
            0.5314373970031738
        ],
        "net_guide.net.2.weight.scale": [
            0.09444551914930344,
            0.0927492156624794,
            0.09379386901855469,
            0.09281310439109802,
            0.09356330335140228,
            0.09267965704202652,
            0.09370695799589157,
            0.09288012981414795,
            0.09473784267902374,
            0.09283711761236191,
            0.09298639744520187,
            0.09268122166395187,
            0.09282983094453812,
            0.09292755275964737,
            0.09301985800266266,
            0.092967689037323,
            0.09286151081323624,
            0.09279907494783401,
            0.09302546828985214,
            0.0929717868566513,
            0.0927778109908104,
            0.09289450198411942,
            0.09332505613565445,
            0.09362080693244934,
            0.09316860884428024,
            0.09280721843242645,
            0.09295126050710678,
            0.09284886717796326,
            0.09304414689540863,
            0.09295044094324112,
            0.09313005208969116,
            0.09274274110794067
        ],
        "net_guide.net.2.bias.loc": [
            -0.18869057297706604
        ],
        "net_guide.net.2.bias.scale": [
            0.0925435721874237
        ]
    },
    "mean_weight_scale": 0.09636319213614021,
    "min_weight_scale": 0.0925435721874237,
    "max_weight_scale": 0.10477334260940552
}