{
    "sites": {
        "net_guide.net.0.weight.loc": [
            -0.11280795931816101,
            0.34778642654418945,
            -0.36521247029304504,
            0.5401477217674255,
            -0.09349386394023895,
            -0.3260272443294525,
            -0.10445743054151535,
            -0.11424137651920319,
            -0.004153676331043243,
            0.37188154458999634,
            -0.29007381200790405,
            -0.03631814196705818,
            -0.13973873853683472,
            -0.11887863278388977,
            -0.1215367391705513,
            -0.02901913784444332,
            0.28484129905700684,
            0.05010056868195534,
            -0.02148127555847168,
            0.4688413739204407,
            0.1504337638616562,
            0.1355322301387787,
            0.290715754032135,
            -0.262050986289978,
            -0.3470059037208557,
            0.46541517972946167,
            0.1648191660642624,
            -0.16100144386291504,
            -0.18241067230701447,
            -0.14624851942062378,
            -0.6205263733863831,
            -0.17032085359096527
        ],
        "net_guide.net.0.weight.scale": [
            0.10520969331264496,
            0.09870805591344833,
            0.09673256427049637,
            0.09863783419132233,
            0.09427440166473389,
            0.0977923721075058,
            0.09460282325744629,
            0.10542910546064377,
            0.09417975693941116,
            0.09695006161928177,
            0.09679926186800003,
            0.10394004732370377,
            0.09505028277635574,
            0.09472670406103134,
            0.10531437397003174,
            0.09487934410572052,
            0.09722034633159637,
            0.1043069064617157,
            0.09436572343111038,
            0.09897562116384506,
            0.09600988030433655,
            0.09421398490667343,
            0.0989348515868187,
            0.09684291481971741,
            0.09600584954023361,
            0.09688108414411545,
            0.10401640087366104,
            0.09436152130365372,
            0.103299081325531,
            0.09515916556119919,
            0.09857367724180222,
            0.10196065157651901
        ],
        "net_guide.net.0.bias.loc": [
            -0.041446276009082794,
            0.3051064908504486,
            0.4875144064426422,
            -0.37243226170539856,
            0.19770875573158264,
            -0.30840975046157837,
            0.14295721054077148,
            0.31090420484542847,
            -0.12370096147060394,
            0.5721046924591064,
            0.3786357343196869,
            0.8095406889915466,
            -0.3880139887332916,
            -0.06656214594841003,
            0.3219766616821289,
            -0.07456336170434952,
            0.12798567116260529,
            0.450215607881546,
            0.23648083209991455,
            -0.020545201376080513,
            0.3461795151233673,
            -0.20721441507339478,
            0.33069178462028503,
            0.34265434741973877,
            0.24224448204040527,
            0.46963393688201904,
            0.1660737246274948,
            0.36746853590011597,
            0.2184540182352066,
            -0.1529458910226822,
            -0.41728299856185913,
            -0.2818031907081604
        ],
        "net_guide.net.0.bias.scale": [
            0.10587462782859802,
            0.09770967811346054,
            0.09844738990068436,
            0.10292434692382812,
            0.09527748823165894,
            0.09965013712644577,
            0.09804022312164307,
            0.1051693931221962,
            0.09479622542858124,
            0.10154224932193756,
            0.10045773535966873,
            0.10238245874643326,
            0.0949278324842453,
            0.09463208168745041,
            0.1042678952217102,
            0.09552519023418427,
            0.10047341883182526,
            0.10304689407348633,
            0.09455080330371857,
            0.10030698031187057,
            0.09570591896772385,
            0.09467728435993195,
            0.09707609564065933,
            0.10036364942789078,
            0.09886270016431808,
            0.10299335420131683,
            0.10604389011859894,
            0.09536926448345184,
            0.10331249982118607,
            0.09453662484884262,
            0.10355380177497864,
            0.10444775968790054
        ],
        "net_guide.net.2.weight.loc": [
            -0.14943909645080566,
            0.16652911901474,
            -0.29093602299690247,
            0.039158448576927185,
            0.21625792980194092,
            0.08649682998657227,
            0.07646214216947556,
            -0.13404051959514618,
            0.263538658618927,
            -0.2785171866416931,
            0.21324552595615387,
            -0.3466291129589081,
            0.4108334481716156,
            0.2885945737361908,
            -0.14510315656661987,
            0.0645589753985405,
            0.02990020625293255,
            -0.4722607433795929,
            0.2738531827926636,
            0.11013776808977127,
            0.176824688911438,
            0.8546130061149597,
            0.09510862827301025,
            0.1462637484073639,
            -0.3042454123497009,
            -0.17154796421527863,
            -0.20111170411109924,
            0.3006475865840912,
            -0.13380327820777893,
            0.40425339341163635,
            -0.009161054156720638,
            -0.6109637022018433
        ],
        "net_guide.net.2.weight.scale": [
            0.09383971989154816,
            0.09346587210893631,
            0.0930790901184082,
            0.09349384158849716,
            0.09509310126304626,
            0.09394358843564987,
            0.09448999911546707,
            0.09360556304454803,
            0.0953204333782196,
            0.09287532418966293,
            0.09369844943284988,
            0.09287935495376587,
            0.09569407999515533,
            0.09429137408733368,
            0.09278663992881775,
            0.09549344331026077,
            0.09368674457073212,
            0.0929807648062706,
            0.09398026019334793,
            0.09360431134700775,
            0.09397472441196442,
            0.095237135887146,
            0.09368623048067093,
            0.09375319629907608,
            0.09329880028963089,
            0.09292256832122803,
            0.09314426779747009,
            0.09393104910850525,
            0.09325263649225235,
            0.09456786513328552,
            0.09358632564544678,
            0.0934687927365303
        ],
        "net_guide.net.2.bias.loc": [
            0.35905539989471436
        ],
        "net_guide.net.2.bias.scale": [
            0.0925997644662857
        ]
    },
    "mean_weight_scale": 0.09718583040323454,
    "min_weight_scale": 0.0925997644662857,
    "max_weight_scale": 0.10604389011859894
}