{
    "sites": {
        "net_guide.net.0.weight.loc": [
            -0.004780287854373455,
            0.18364186584949493,
            0.4162244498729706,
            -0.005605156999081373,
            0.3358149528503418,
            0.13978639245033264,
            0.032778237015008926,
            -0.04051371291279793,
            -0.0006951484829187393,
            0.006660965271294117,
            -0.0025502985808998346,
            0.0904913991689682,
            0.6693888902664185,
            -0.07696244865655899,
            -0.02705681510269642,
            -0.060108866542577744,
            -0.1312578171491623,
            0.14523766934871674,
            -0.007616065908223391,
            -0.3052294850349426,
            -0.06034350022673607,
            0.23992370069026947,
            -0.2881857454776764,
            -0.1001921072602272,
            0.0332677997648716,
            0.4476371109485626,
            -0.1886507123708725,
            0.49191856384277344,
            -0.3387738764286041,
            -0.05453523248434067,
            -0.5297761559486389,
            -0.04530761018395424
        ],
        "net_guide.net.0.weight.scale": [
            0.09369411319494247,
            0.09459422528743744,
            0.0940191000699997,
            0.09622424095869064,
            0.09389229118824005,
            0.09548582136631012,
            0.0950910821557045,
            0.096371129155159,
            0.09422487765550613,
            0.09654437005519867,
            0.09676457941532135,
            0.09595038741827011,
            0.0982489213347435,
            0.09504980593919754,
            0.09630408883094788,
            0.09740591049194336,
            0.09590759128332138,
            0.09581635147333145,
            0.09558314830064774,
            0.0955231636762619,
            0.097043976187706,
            0.09572844207286835,
            0.09562136977910995,
            0.09648244827985764,
            0.0950058102607727,
            0.09704020619392395,
            0.09588880091905594,
            0.09688300639390945,
            0.09606398642063141,
            0.09857148677110672,
            0.09727924317121506,
            0.09670072048902512
        ],
        "net_guide.net.0.bias.loc": [
            0.6326988935470581,
            -0.354439377784729,
            0.19544436037540436,
            -0.026154687628149986,
            0.05844683572649956,
            0.0625605583190918,
            0.13392551243305206,
            -0.09624607115983963,
            -0.3037906587123871,
            -0.023335179314017296,
            -0.2801222801208496,
            0.16473527252674103,
            0.046971697360277176,
            -0.34929972887039185,
            0.5263212323188782,
            -0.39646562933921814,
            -0.44883567094802856,
            -0.184557244181633,
            0.5194652676582336,
            0.24443818628787994,
            0.0523306168615818,
            0.08738822489976883,
            0.12601962685585022,
            -0.03318396583199501,
            0.24826323986053467,
            -0.5015491843223572,
            0.021956944838166237,
            0.14363515377044678,
            -0.25351494550704956,
            -0.33360981941223145,
            0.5688280463218689,
            -0.048146434128284454
        ],
        "net_guide.net.0.bias.scale": [
            0.10302616655826569,
            0.10110984742641449,
            0.0956277996301651,
            0.09951518476009369,
            0.09570185840129852,
            0.10430999100208282,
            0.10407275706529617,
            0.09763041138648987,
            0.10464544594287872,
            0.09632167220115662,
            0.10458902269601822,
            0.0989675521850586,
            0.10296676307916641,
            0.09670528769493103,
            0.10289377719163895,
            0.1023087427020073,
            0.09985197335481644,
            0.09489205479621887,
            0.09816069900989532,
            0.10225456207990646,
            0.10290415585041046,
            0.10049416869878769,
            0.09690319746732712,
            0.09941089153289795,
            0.0977170392870903,
            0.10201971232891083,
            0.10280216485261917,
            0.10404760390520096,
            0.10091084986925125,
            0.10286500304937363,
            0.09909086674451828,
            0.1004786416888237
        ],
        "net_guide.net.2.weight.loc": [
            0.015790395438671112,
            0.33672237396240234,
            0.49653488397598267,
            -0.06521035730838776,
            -0.4336571991443634,
            0.023275770246982574,
            0.02498042583465576,
            -0.1715516299009323,
            -0.01226126030087471,
            -0.21883845329284668,
            0.023810047656297684,
            -0.12170019745826721,
            -0.052409373223781586,
            0.8223992586135864,
            0.08163698017597198,
            0.2858739197254181,
            -0.1837066262960434,
            -0.389863520860672,
            0.22499912977218628,
            0.2279854714870453,
            0.3438235819339752,
            -0.1998196393251419,
            -0.263945996761322,
            -0.08887401223182678,
            0.3814077377319336,
            0.22286993265151978,
            -0.021076969802379608,
            -0.010605964809656143,
            0.10481308400630951,
            0.19014106690883636,
            -0.1365724503993988,
            -0.054014381021261215
        ],
        "net_guide.net.2.weight.scale": [
            0.09295427799224854,
            0.0945628359913826,
            0.09317989647388458,
            0.09408679604530334,
            0.09313489496707916,
            0.09365596622228622,
            0.09369853883981705,
            0.09370347857475281,
            0.09475559741258621,
            0.09406190365552902,
            0.09515932947397232,
            0.09343884885311127,
            0.09323254227638245,
            0.09428973495960236,
            0.09280949831008911,
            0.09493444114923477,
            0.09420526772737503,
            0.0937872901558876,
            0.0931614562869072,
            0.09283658117055893,
            0.09368623048067093,
            0.09345988184213638,
            0.09309741854667664,
            0.09368940442800522,
            0.09365139156579971,
            0.0933995321393013,
            0.09362564980983734,
            0.09337735921144485,
            0.09314242750406265,
            0.09452264755964279,
            0.09292219579219818,
            0.09386885166168213
        ],
        "net_guide.net.2.bias.loc": [
            -0.3812900483608246
        ],
        "net_guide.net.2.bias.scale": [
            0.09270517528057098
        ]
    },
    "mean_weight_scale": 0.0966700814741174,
    "min_weight_scale": 0.09270517528057098,
    "max_weight_scale": 0.10464544594287872,
    "likelihood_scale": {
        "mean": 0.30000001192092896,
        "std": 0.0
    }
}