{
    "sites": {
        "net_guide.net.0.weight.loc": [
            0.41256773471832275,
            -0.31042343378067017,
            0.36783647537231445,
            0.5503637194633484,
            -0.1713990718126297,
            -0.39177823066711426,
            0.27000170946121216,
            0.43260088562965393,
            -0.16790257394313812,
            -0.2712705731391907,
            0.45196402072906494,
            0.0974150002002716,
            -0.14968915283679962,
            0.020264409482479095,
            -0.18036635220050812,
            0.04178460314869881,
            0.45165905356407166,
            0.3884405791759491,
            -0.4938127398490906,
            -0.3592888414859772,
            -0.3063417077064514,
            0.17322614789009094,
            0.29199811816215515,
            -0.3850635290145874,
            0.6332497596740723,
            -0.21203240752220154,
            0.009160674177110195,
            -0.07846132665872574,
            0.4045073091983795,
            -0.152080699801445,
            -0.2499285638332367,
            0.03297952190041542
        ],
        "net_guide.net.0.weight.scale": [
            0.0043108281679451466,
            0.0043121399357914925,
            0.0043153404258191586,
            0.0043111261911690235,
            0.004029117990285158,
            0.0042452821508049965,
            0.004249622579663992,
            0.00418673362582922,
            0.00406647939234972,
            0.004291580058634281,
            0.004285406321287155,
            0.004308828618377447,
            0.004133064299821854,
            0.004116183612495661,
            0.004018873441964388,
            0.00397489033639431,
            0.004286855459213257,
            0.00428643636405468,
            0.004307712893933058,
            0.004217064473778009,
            0.004312356002628803,
            0.00431168545037508,
            0.004278464242815971,
            0.00419971439987421,
            0.0041976082138717175,
            0.004256487358361483,
            0.004264540504664183,
            0.004141907207667828,
            0.0042533911764621735,
            0.004212610889226198,
            0.004297823645174503,
            0.004161906894296408
        ],
        "net_guide.net.0.bias.loc": [
            0.36680787801742554,
            0.255831778049469,
            -0.24026039242744446,
            -0.18103544414043427,
            0.7256269454956055,
            0.2627827227115631,
            -0.2659207284450531,
            1.8647631406784058,
            0.7110227346420288,
            0.2537749111652374,
            -0.2728181779384613,
            -0.09546921402215958,
            0.6327617764472961,
            0.19042469561100006,
            -0.19872070848941803,
            0.3438552916049957,
            0.4028661549091339,
            0.35204747319221497,
            -0.44433048367500305,
            0.34600794315338135,
            0.2494484931230545,
            -0.14061951637268066,
            -0.25380632281303406,
            0.3778846561908722,
            -0.06406985968351364,
            -0.22533906996250153,
            0.1090981513261795,
            0.6337197422981262,
            -0.3217635154724121,
            -0.1685798615217209,
            0.2299710512161255,
            1.2435171604156494
        ],
        "net_guide.net.0.bias.scale": [
            0.0043148137629032135,
            0.004314548335969448,
            0.004314900375902653,
            0.004314858932048082,
            0.004303292836993933,
            0.004312499891966581,
            0.004313015844672918,
            0.004309997893869877,
            0.004301616922020912,
            0.004314538091421127,
            0.004313435405492783,
            0.004314237739890814,
            0.004308236762881279,
            0.004312162287533283,
            0.004307569470256567,
            0.00430805841460824,
            0.004313435405492783,
            0.004313100129365921,
            0.004314751829952002,
            0.004310756456106901,
            0.0043144249357283115,
            0.0043145134113729,
            0.004314081277698278,
            0.004311189986765385,
            0.004309151321649551,
            0.004312651697546244,
            0.004313227720558643,
            0.004315124358981848,
            0.004312668461352587,
            0.004311778116971254,
            0.004314482677727938,
            0.004309566225856543
        ],
        "net_guide.net.2.weight.loc": [
            0.12546806037425995,
            -0.11461056768894196,
            -0.04997957497835159,
            0.0714511126279831,
            0.5961323976516724,
            -0.380587637424469,
            0.2890286445617676,
            -0.5255204439163208,
            0.5434689521789551,
            -0.22941792011260986,
            -0.1931580752134323,
            -0.059861116111278534,
            0.4418313801288605,
            0.179155170917511,
            0.7281016111373901,
            0.24970054626464844,
            0.16436927020549774,
            0.22234363853931427,
            0.11092112958431244,
            -0.34466487169265747,
            -0.08075921982526779,
            -0.0296462494879961,
            -0.19495877623558044,
            -0.463693767786026,
            0.4064726233482361,
            0.22690902650356293,
            0.13872574269771576,
            -0.23980490863323212,
            -0.2772662043571472,
            0.4984027147293091,
            -0.1627422720193863,
            -0.28583967685699463
        ],
        "net_guide.net.2.weight.scale": [
            0.004212303552776575,
            0.004245081916451454,
            0.004244240000844002,
            0.00417684530839324,
            0.004280392546206713,
            0.0042085289023816586,
            0.0042874072678387165,
            0.004094052594155073,
            0.004258010070770979,
            0.004262594971805811,
            0.004211572464555502,
            0.004310306161642075,
            0.004293098580092192,
            0.0043133944272994995,
            0.004300945904105902,
            0.004309681244194508,
            0.0041915117762982845,
            0.004225729964673519,
            0.004176158457994461,
            0.004217138979583979,
            0.004241751506924629,
            0.00429893285036087,
            0.004276071675121784,
            0.004200859926640987,
            0.004127121064811945,
            0.004293409641832113,
            0.004314031917601824,
            0.004293409641832113,
            0.004240052774548531,
            0.004304856993257999,
            0.004272164776921272,
            0.004257819149643183
        ],
        "net_guide.net.2.bias.loc": [
            0.5439605712890625
        ],
        "net_guide.net.2.bias.scale": [
            0.004278721287846565
        ],
        "likelihood_guide.likelihood._scale.loc": [
            -0.43087220191955566
        ],
        "likelihood_guide.likelihood._scale.scale": [
            0.01081322692334652
        ]
    },
    "mean_weight_scale": 0.004261267501092756,
    "min_weight_scale": 0.00397489033639431,
    "max_weight_scale": 0.0043153404258191586
}