{
    "sites": {
        "net_guide.net.0.weight.loc": [
            -0.010170113295316696,
            0.17814958095550537,
            0.4126582443714142,
            0.004403799772262573,
            0.33661332726478577,
            0.1339801698923111,
            0.03392425924539566,
            -0.04521654173731804,
            0.0047558569349348545,
            0.007660490460693836,
            -0.007389134261757135,
            0.08936852961778641,
            0.6672995090484619,
            -0.07526982575654984,
            -0.024820061400532722,
            -0.06067698076367378,
            -0.1328948438167572,
            0.14647865295410156,
            -0.007607977371662855,
            -0.3029930293560028,
            -0.06205184385180473,
            0.23944689333438873,
            -0.2875259816646576,
            -0.09747674316167831,
            0.03735615313053131,
            0.44292891025543213,
            -0.1854277104139328,
            0.488501638174057,
            -0.3381781578063965,
            -0.05922836437821388,
            -0.527643620967865,
            -0.050312452018260956
        ],
        "net_guide.net.0.weight.scale": [
            0.09335865825414658,
            0.09417016804218292,
            0.0934695303440094,
            0.09748143702745438,
            0.09399960190057755,
            0.09464514255523682,
            0.09498517960309982,
            0.0955016165971756,
            0.09424954652786255,
            0.09619845449924469,
            0.09642847627401352,
            0.09637995809316635,
            0.09616176784038544,
            0.09416067600250244,
            0.0955703854560852,
            0.09713578224182129,
            0.09596175700426102,
            0.09505853801965714,
            0.09426911920309067,
            0.09496079385280609,
            0.09618411958217621,
            0.0954102873802185,
            0.09492617845535278,
            0.09681428968906403,
            0.09463327378034592,
            0.09575103968381882,
            0.09556860476732254,
            0.09564567357301712,
            0.0961298793554306,
            0.0966019555926323,
            0.09678848087787628,
            0.0963282659649849
        ],
        "net_guide.net.0.bias.loc": [
            0.6320077180862427,
            -0.3584293723106384,
            0.19932425022125244,
            -0.022135881707072258,
            0.052166834473609924,
            0.05466427281498909,
            0.12767532467842102,
            -0.09589387476444244,
            -0.30654534697532654,
            -0.027729323133826256,
            -0.28012579679489136,
            0.16431593894958496,
            0.04475080221891403,
            -0.3533821702003479,
            0.5160844326019287,
            -0.39345288276672363,
            -0.4487552046775818,
            -0.19011962413787842,
            0.5266317129135132,
            0.24455104768276215,
            0.06006797403097153,
            0.08139596879482269,
            0.12484493106603622,
            -0.03376767039299011,
            0.2523755133152008,
            -0.5044633150100708,
            0.019061915576457977,
            0.1405893862247467,
            -0.2542421221733093,
            -0.33498790860176086,
            0.5662412047386169,
            -0.04689615219831467
        ],
        "net_guide.net.0.bias.scale": [
            0.10351087898015976,
            0.10191121697425842,
            0.09433344751596451,
            0.10018584877252579,
            0.09557975083589554,
            0.10411157459020615,
            0.10407084971666336,
            0.09770073741674423,
            0.10459573566913605,
            0.09464031457901001,
            0.1048101931810379,
            0.10038252919912338,
            0.10364368557929993,
            0.09501419216394424,
            0.10204949229955673,
            0.10273490846157074,
            0.1006784439086914,
            0.09389840066432953,
            0.09781321883201599,
            0.10288359969854355,
            0.10333999246358871,
            0.10029741376638412,
            0.09578371793031693,
            0.1002746969461441,
            0.09758840501308441,
            0.10199235379695892,
            0.10310796648263931,
            0.10408330708742142,
            0.10164538770914078,
            0.10364808887243271,
            0.09930114448070526,
            0.10098519921302795
        ],
        "net_guide.net.2.weight.loc": [
            0.016843808814883232,
            0.3329014480113983,
            0.4933299124240875,
            -0.07767869532108307,
            -0.4314413070678711,
            0.02015063725411892,
            0.03440103679895401,
            -0.16906990110874176,
            -0.0060047670267522335,
            -0.2145036906003952,
            0.015452624298632145,
            -0.12648916244506836,
            -0.05250478535890579,
            0.8204050660133362,
            0.07689804583787918,
            0.2830977737903595,
            -0.18586945533752441,
            -0.38715678453445435,
            0.21988128125667572,
            0.2258901447057724,
            0.3413553535938263,
            -0.1979653537273407,
            -0.2659372091293335,
            -0.09367506951093674,
            0.3749523162841797,
            0.21666643023490906,
            -0.02364267408847809,
            -0.010746474377810955,
            0.10504628717899323,
            0.1731451153755188,
            -0.13720925152301788,
            -0.055029354989528656
        ],
        "net_guide.net.2.weight.scale": [
            0.09286057949066162,
            0.09368330240249634,
            0.0928671807050705,
            0.09388427436351776,
            0.09280701726675034,
            0.09341349452733994,
            0.09334058314561844,
            0.09368857741355896,
            0.0951133742928505,
            0.09339950978755951,
            0.09461389482021332,
            0.09343971312046051,
            0.09291207045316696,
            0.09441199153661728,
            0.09260852634906769,
            0.09413977712392807,
            0.09306158125400543,
            0.09339098632335663,
            0.09273884445428848,
            0.09276856482028961,
            0.09349538385868073,
            0.09302762150764465,
            0.09290400892496109,
            0.0933590829372406,
            0.09329114854335785,
            0.09307979792356491,
            0.0931839570403099,
            0.09298823773860931,
            0.09284094721078873,
            0.09445779025554657,
            0.09275081008672714,
            0.09355475753545761
        ],
        "net_guide.net.2.bias.loc": [
            -0.3780075013637543
        ],
        "net_guide.net.2.bias.scale": [
            0.0924500897526741
        ]
    },
    "mean_weight_scale": 0.09641291554441157
}