{
    "sites": {
        "net_guide.net.0.weight.loc": [
            -0.2592167854309082,
            -0.24107658863067627,
            -0.4047624170780182,
            -0.2513004541397095,
            -0.011355068534612656,
            0.47735291719436646,
            -0.2190530002117157,
            0.3415820598602295,
            0.2083556205034256,
            0.31529930233955383,
            0.1843254417181015,
            -0.805119514465332,
            -0.22218866646289825,
            0.1939554661512375,
            -0.5859226584434509,
            0.46276015043258667,
            0.6059568524360657,
            -0.30309414863586426,
            0.1844981163740158,
            0.29473862051963806,
            -0.2188289612531662,
            -0.13568858802318573,
            0.17928139865398407,
            -0.471918523311615,
            0.21590010821819305,
            0.44829729199409485,
            -0.3382350504398346,
            0.09638971835374832,
            -0.20714859664440155,
            -0.5023542642593384,
            -0.13327449560165405,
            0.41341617703437805
        ],
        "net_guide.net.0.weight.scale": [
            0.004116001073271036,
            0.004273104015737772,
            0.003289393847808242,
            0.004310429561883211,
            0.003889458952471614,
            0.004232721868902445,
            0.004023457877337933,
            0.0042749932035803795,
            0.0034463824704289436,
            0.0040601142682135105,
            0.004154172260314226,
            0.0039025915320962667,
            0.0042619407176971436,
            0.004074458498507738,
            0.004138004034757614,
            0.00399761414155364,
            0.004299699328839779,
            0.0039046371821314096,
            0.004305119626224041,
            0.004290607757866383,
            0.0042928834445774555,
            0.004126345738768578,
            0.004305521957576275,
            0.0038794807624071836,
            0.003967319615185261,
            0.004287006799131632,
            0.004261320922523737,
            0.004007317125797272,
            0.004263086710125208,
            0.00396103085950017,
            0.00423878338187933,
            0.00430880393832922
        ],
        "net_guide.net.0.bias.loc": [
            -0.40953806042671204,
            0.37750306725502014,
            -1.706180453300476,
            0.40013381838798523,
            0.3556923568248749,
            -0.4141435921192169,
            0.9139300584793091,
            0.416323184967041,
            -0.8735729455947876,
            0.4168124198913574,
            0.7713750600814819,
            0.8777317404747009,
            0.35719114542007446,
            -0.813225507736206,
            0.7936074733734131,
            0.4373905062675476,
            -0.15724273025989532,
            1.268253207206726,
            -0.20755018293857574,
            -0.3685624897480011,
            0.34825432300567627,
            0.5638400912284851,
            -0.2739696204662323,
            -0.6261793971061707,
            0.906502902507782,
            -0.48739248514175415,
            -0.490127831697464,
            -0.16398100554943085,
            -0.32708969712257385,
            -0.7380613088607788,
            -0.2167174220085144,
            -0.13531604409217834
        ],
        "net_guide.net.0.bias.scale": [
            0.0043097613379359245,
            0.004313071258366108,
            0.004290622193366289,
            0.004314188379794359,
            0.004305909853428602,
            0.004312160424888134,
            0.004303397610783577,
            0.00431223027408123,
            0.0042944601736962795,
            0.004308764822781086,
            0.004307187162339687,
            0.004302431363612413,
            0.004313398618251085,
            0.004310478921979666,
            0.004311599303036928,
            0.004306610208004713,
            0.00431399280205369,
            0.004297330044209957,
            0.0043146987445652485,
            0.0043143839575350285,
            0.004313361365348101,
            0.0043066698126494884,
            0.0043146368116140366,
            0.004309266339987516,
            0.004299832507967949,
            0.004314066842198372,
            0.004313766490668058,
            0.004305189475417137,
            0.004313419107347727,
            0.0043085841462016106,
            0.004313324578106403,
            0.0043149907141923904
        ],
        "net_guide.net.2.weight.loc": [
            0.4900719225406647,
            -0.16850726306438446,
            -1.4585119485855103,
            -0.2112273871898651,
            -0.5506423711776733,
            -0.2321065217256546,
            0.5544187426567078,
            0.23375500738620758,
            1.2195250988006592,
            0.5347944498062134,
            -0.3938513696193695,
            -0.5456333160400391,
            -0.2991810739040375,
            0.5151765942573547,
            -0.45506200194358826,
            0.5506697297096252,
            -0.09017962217330933,
            0.7536698579788208,
            -0.09158351272344589,
            -0.1816031038761139,
            -0.16603772342205048,
            0.3873037099838257,
            -0.1382843405008316,
            0.6742458343505859,
            -0.5630204677581787,
            -0.14852918684482574,
            0.15337695181369781,
            -0.6077606081962585,
            0.2028370201587677,
            0.6103925108909607,
            0.19087132811546326,
            -0.12863636016845703
        ],
        "net_guide.net.2.weight.scale": [
            0.004288177937269211,
            0.004254176281392574,
            0.004296168219298124,
            0.004249634686857462,
            0.004309262149035931,
            0.0041721477173268795,
            0.004226147197186947,
            0.004200535360723734,
            0.00430998345836997,
            0.004217301961034536,
            0.004255006089806557,
            0.0037183286622166634,
            0.004264845512807369,
            0.004306435585021973,
            0.003968018107116222,
            0.0041196709498763084,
            0.0040338775143027306,
            0.00414013396948576,
            0.004292380064725876,
            0.004265856463462114,
            0.004265333525836468,
            0.0042833369225263596,
            0.00429705111309886,
            0.004208601079881191,
            0.0042363908141851425,
            0.004197896458208561,
            0.004262298345565796,
            0.004311471711844206,
            0.004297940526157618,
            0.004203098360449076,
            0.004308358300477266,
            0.004186172969639301
        ],
        "net_guide.net.2.bias.loc": [
            -0.03913506120443344
        ],
        "net_guide.net.2.bias.scale": [
            0.004272478632628918
        ],
        "likelihood_guide.likelihood._scale.loc": [
            -0.6290877461433411
        ],
        "likelihood_guide.likelihood._scale.scale": [
            0.010833928361535072
        ]
    },
    "mean_weight_scale": 0.0042087227398932905,
    "min_weight_scale": 0.003289393847808242,
    "max_weight_scale": 0.0043149907141923904
}