{
    "sites": {
        "net_guide.net.0.weight.loc": [
            -0.04233648255467415,
            -0.07895631343126297,
            -0.5294723510742188,
            0.7547454237937927,
            0.10003502666950226,
            -0.50467848777771,
            0.35006436705589294,
            0.28461772203445435,
            -0.07479798048734665,
            0.014445510692894459,
            -0.06998788565397263,
            0.235384002327919,
            -0.0432058721780777,
            0.43123379349708557,
            0.1987321972846985,
            0.3610425591468811,
            -0.19367113709449768,
            -0.1689406931400299,
            0.28358685970306396,
            -0.19222325086593628,
            0.38097500801086426,
            0.4244050979614258,
            0.22359563410282135,
            0.447336882352829,
            0.3574366271495819,
            0.12350762635469437,
            0.33445248007774353,
            0.06937400251626968,
            -0.5307797193527222,
            -0.19319674372673035,
            -0.21731700003147125,
            0.6404950618743896
        ],
        "net_guide.net.0.weight.scale": [
            0.09462960064411163,
            0.09471708536148071,
            0.0967848151922226,
            0.0955553725361824,
            0.09471394866704941,
            0.09525811672210693,
            0.09838957339525223,
            0.09722570329904556,
            0.09494059532880783,
            0.10381761938333511,
            0.09444193542003632,
            0.09793549031019211,
            0.09490472823381424,
            0.09653235226869583,
            0.09478555619716644,
            0.09539405256509781,
            0.10208969563245773,
            0.10257325321435928,
            0.10010011494159698,
            0.1045793741941452,
            0.09613153338432312,
            0.0940108522772789,
            0.09786269068717957,
            0.09651348739862442,
            0.09636010229587555,
            0.09497910737991333,
            0.09624415636062622,
            0.09523488581180573,
            0.09767569601535797,
            0.09554186463356018,
            0.0947350412607193,
            0.09350338578224182
        ],
        "net_guide.net.0.bias.loc": [
            -0.031721632927656174,
            0.05308575555682182,
            0.16440698504447937,
            0.41074296832084656,
            0.021572332829236984,
            -0.07790333777666092,
            0.26803359389305115,
            0.23831747472286224,
            0.2312331646680832,
            0.2222486138343811,
            -0.14400212466716766,
            -0.18977604806423187,
            -0.018910158425569534,
            -0.11404964327812195,
            0.6226693391799927,
            -0.04980839416384697,
            0.33755627274513245,
            0.3348071277141571,
            -0.5812929272651672,
            -0.1607290357351303,
            -0.07642874121665955,
            0.3138158619403839,
            -0.4666493535041809,
            -0.2560119926929474,
            -0.34907975792884827,
            0.2649020254611969,
            0.0785893052816391,
            -0.0943719893693924,
            0.553056538105011,
            -0.3639751076698303,
            0.38025325536727905,
            0.06421069800853729
        ],
        "net_guide.net.0.bias.scale": [
            0.0942632332444191,
            0.09511983394622803,
            0.10370825231075287,
            0.09640638530254364,
            0.09444727003574371,
            0.09791707247495651,
            0.102248415350914,
            0.09490533918142319,
            0.09564556181430817,
            0.10439963638782501,
            0.09378085285425186,
            0.10362997651100159,
            0.09509870409965515,
            0.10139530897140503,
            0.09495712071657181,
            0.09737835079431534,
            0.10154019296169281,
            0.10159026831388474,
            0.10203474760055542,
            0.10690325498580933,
            0.09724503755569458,
            0.09611273556947708,
            0.10399646311998367,
            0.09941399842500687,
            0.09776435047388077,
            0.09447001665830612,
            0.09540751576423645,
            0.09574837237596512,
            0.09845933318138123,
            0.0941559374332428,
            0.09505730867385864,
            0.0934019610285759
        ],
        "net_guide.net.2.weight.loc": [
            0.2526545524597168,
            0.31246909499168396,
            -0.05258779600262642,
            -0.6535336971282959,
            0.19325751066207886,
            -0.4488653540611267,
            0.0015213217120617628,
            0.22041666507720947,
            0.2088632732629776,
            -0.7434331178665161,
            0.31462350487709045,
            0.031560104340314865,
            0.07284385710954666,
            -0.13044801354408264,
            0.3655940592288971,
            -0.5078052282333374,
            -0.2190433293581009,
            -0.31183159351348877,
            -0.1782093048095703,
            -0.0912560224533081,
            -0.41478240489959717,
            -0.904616117477417,
            0.008037196472287178,
            0.240614116191864,
            0.35475337505340576,
            0.1364002227783203,
            0.21714182198047638,
            0.07189402729272842,
            0.15610766410827637,
            0.16016285121440887,
            0.6273765563964844,
            1.318209171295166
        ],
        "net_guide.net.2.weight.scale": [
            0.0951853096485138,
            0.09477335214614868,
            0.09373100101947784,
            0.09301216155290604,
            0.09504727274179459,
            0.09300968050956726,
            0.09325476735830307,
            0.09336760640144348,
            0.09448427706956863,
            0.09376209229230881,
            0.09460965543985367,
            0.0935104712843895,
            0.09550906717777252,
            0.09298925846815109,
            0.09352461248636246,
            0.09298433363437653,
            0.0933438390493393,
            0.0933622196316719,
            0.09320960193872452,
            0.09405187517404556,
            0.09294266253709793,
            0.0926898643374443,
            0.0938180610537529,
            0.0934240072965622,
            0.0938194990158081,
            0.09360634535551071,
            0.09338049590587616,
            0.09442064166069031,
            0.09364274889230728,
            0.09446635097265244,
            0.09409669041633606,
            0.0933370292186737
        ],
        "net_guide.net.2.bias.loc": [
            0.2787213921546936
        ],
        "net_guide.net.2.bias.scale": [
            0.0928984209895134
        ]
    },
    "mean_weight_scale": 0.09618587492360282,
    "min_weight_scale": 0.0926898643374443,
    "max_weight_scale": 0.10690325498580933
}