{
    "sites": {
        "net_guide.net.0.weight.loc": [
            0.034148648381233215,
            0.4723495543003082,
            -0.3916208744049072,
            -0.25133317708969116,
            0.11651692539453506,
            -0.25033366680145264,
            0.7771349549293518,
            0.42001616954803467,
            0.13534073531627655,
            -0.31041276454925537,
            0.1593232899904251,
            0.1377020925283432,
            -0.12670621275901794,
            0.34032607078552246,
            0.1902807354927063,
            -0.21581168472766876,
            0.3265393078327179,
            0.33894869685173035,
            0.196092888712883,
            0.22879326343536377,
            -0.21567083895206451,
            -0.15622058510780334,
            0.2635014057159424,
            0.13146568834781647,
            0.020676156505942345,
            0.3145101070404053,
            0.666191041469574,
            0.2120618224143982,
            -0.10683254897594452,
            0.2383951097726822,
            -0.39848265051841736,
            0.30626028776168823
        ],
        "net_guide.net.0.weight.scale": [
            0.004286354407668114,
            0.00409037247300148,
            0.004087258595973253,
            0.004224281758069992,
            0.003961706999689341,
            0.0035216365940868855,
            0.004154691006988287,
            0.004293547011911869,
            0.004314093850553036,
            0.0037648044526576996,
            0.004278814885765314,
            0.004317153710871935,
            0.00345693901181221,
            0.0041299969889223576,
            0.004280367866158485,
            0.003746968461200595,
            0.004308538977056742,
            0.004101710394024849,
            0.003954257816076279,
            0.004308479372411966,
            0.004159050062298775,
            0.0036165842320770025,
            0.003714385675266385,
            0.0042016576044261456,
            0.0039050544146448374,
            0.004311280325055122,
            0.0042382776737213135,
            0.004100582096725702,
            0.004239654168486595,
            0.003814366413280368,
            0.00408445717766881,
            0.004191202111542225
        ],
        "net_guide.net.0.bias.loc": [
            0.4863222539424896,
            0.6914020776748657,
            -0.6518258452415466,
            0.39016181230545044,
            0.4981231987476349,
            -1.0604676008224487,
            0.8434756398200989,
            -0.46820324659347534,
            -0.18989473581314087,
            -0.5230036377906799,
            0.2406192272901535,
            -0.16614648699760437,
            0.5310836434364319,
            -1.432762622833252,
            0.2866470217704773,
            -0.9129224419593811,
            -0.37619006633758545,
            0.11434339731931686,
            0.8403780460357666,
            0.32834863662719727,
            0.902670681476593,
            -0.6598780155181885,
            -1.10981285572052,
            -0.1848490834236145,
            0.5991551876068115,
            -0.38265782594680786,
            -0.4727807939052582,
            -0.28510430455207825,
            0.4474930763244629,
            -0.31021952629089355,
            0.6018802523612976,
            -0.39105305075645447
        ],
        "net_guide.net.0.bias.scale": [
            0.0043144309893250465,
            0.004309157375246286,
            0.0043086581863462925,
            0.004310293588787317,
            0.004304284229874611,
            0.004297944717109203,
            0.0043091061525046825,
            0.004314356949180365,
            0.004314626567065716,
            0.004301986191421747,
            0.004311681259423494,
            0.004314783029258251,
            0.004279788583517075,
            0.004311634227633476,
            0.004314443562179804,
            0.004301760345697403,
            0.004314394202083349,
            0.004306599963456392,
            0.004301809705793858,
            0.004314443562179804,
            0.004307941067963839,
            0.004298063460737467,
            0.0043007428757846355,
            0.0043136184103786945,
            0.004303826484829187,
            0.004313441459089518,
            0.004315410275012255,
            0.004310938995331526,
            0.004309796262532473,
            0.004303727764636278,
            0.004314118530601263,
            0.004312123637646437
        ],
        "net_guide.net.2.weight.loc": [
            0.09314696490764618,
            0.598628044128418,
            0.5012900233268738,
            -0.3809472620487213,
            -0.5198314189910889,
            -1.0380269289016724,
            0.4359298348426819,
            -0.15443968772888184,
            -0.11114898324012756,
            0.8513551354408264,
            0.22868235409259796,
            -0.05311305820941925,
            0.9309239983558655,
            0.5475348830223083,
            0.1772443950176239,
            -0.9275194406509399,
            -0.14920316636562347,
            0.38668549060821533,
            -0.6174521446228027,
            0.09845338761806488,
            0.4330531060695648,
            -0.9579384922981262,
            1.0497809648513794,
            -0.40369275212287903,
            -0.4761449694633484,
            -0.2209673374891281,
            -0.36830422282218933,
            -0.4905240535736084,
            0.22431421279907227,
            -0.7744671106338501,
            -0.5987456440925598,
            -0.3454644978046417
        ],
        "net_guide.net.2.weight.scale": [
            0.0043020290322601795,
            0.0040945131331682205,
            0.004271453712135553,
            0.004269515164196491,
            0.004293374717235565,
            0.004310057498514652,
            0.003773076692596078,
            0.004224195145070553,
            0.0043074339628219604,
            0.0042897178791463375,
            0.0042931679636240005,
            0.0043044136837124825,
            0.004292171448469162,
            0.004294814541935921,
            0.0042823790572583675,
            0.0043113380670547485,
            0.004260926507413387,
            0.0042291730642318726,
            0.004247918725013733,
            0.0042634932324290276,
            0.004236744251102209,
            0.004313157871365547,
            0.004306628834456205,
            0.004307534545660019,
            0.004300663247704506,
            0.004267176613211632,
            0.004037618637084961,
            0.004295422695577145,
            0.004298696760088205,
            0.004288869444280863,
            0.004177263472229242,
            0.004272162914276123
        ],
        "net_guide.net.2.bias.loc": [
            -0.443301796913147
        ],
        "net_guide.net.2.bias.scale": [
            0.004274681210517883
        ],
        "likelihood_guide.likelihood._scale.loc": [
            -0.6212309002876282
        ],
        "likelihood_guide.likelihood._scale.scale": [
            0.010890238918364048
        ]
    },
    "mean_weight_scale": 0.0042093839477171605,
    "min_weight_scale": 0.00345693901181221,
    "max_weight_scale": 0.004317153710871935
}