{
    "sites": {
        "net_guide.net.0.weight.loc": [
            0.4131523370742798,
            0.27254927158355713,
            0.17945027351379395,
            0.17907240986824036,
            0.2241847813129425,
            0.2093849629163742,
            -0.32369232177734375,
            -0.18115685880184174,
            0.21209098398685455,
            -0.1221606433391571,
            0.32904401421546936,
            -0.13201457262039185,
            -0.15641054511070251,
            0.7148778438568115,
            -0.5569178462028503,
            -0.5009157657623291,
            0.32307204604148865,
            -0.14987309277057648,
            -0.0633048564195633,
            0.39687901735305786,
            0.40768757462501526,
            -0.31112298369407654,
            0.1301090121269226,
            -0.2094663381576538,
            0.14606352150440216,
            0.022908484563231468,
            0.17862027883529663,
            6.868137279525399e-05,
            0.34532400965690613,
            0.24563102424144745,
            0.4690549671649933,
            0.3562992811203003
        ],
        "net_guide.net.0.weight.scale": [
            0.09694280475378036,
            0.0972946435213089,
            0.09892188012599945,
            0.09561236947774887,
            0.09907320141792297,
            0.09734754264354706,
            0.09907560795545578,
            0.10005167871713638,
            0.09609239548444748,
            0.10498848557472229,
            0.09653712064027786,
            0.10216972976922989,
            0.09413802623748779,
            0.09764502942562103,
            0.0959867388010025,
            0.09576772898435593,
            0.09674467146396637,
            0.09628496319055557,
            0.10486400872468948,
            0.09467639774084091,
            0.09430713206529617,
            0.09735842794179916,
            0.1023622527718544,
            0.09697601944208145,
            0.09888792783021927,
            0.0954287201166153,
            0.0946602150797844,
            0.10505226254463196,
            0.09641192108392715,
            0.09498696774244308,
            0.09736010432243347,
            0.09394392371177673
        ],
        "net_guide.net.0.bias.loc": [
            -0.5277488231658936,
            0.37508755922317505,
            0.30134859681129456,
            -0.5664717555046082,
            0.004059004131704569,
            0.12472672015428543,
            0.17952963709831238,
            0.32973524928092957,
            0.12885355949401855,
            -0.4229314923286438,
            0.6084916591644287,
            0.36766117811203003,
            -0.5322880744934082,
            -0.07509244233369827,
            0.13040709495544434,
            0.2917022109031677,
            -0.3739965260028839,
            -0.0013116521295160055,
            -0.22138068079948425,
            0.37821805477142334,
            0.024410944432020187,
            -0.11471172422170639,
            -0.38802289962768555,
            -0.20550259947776794,
            -0.09283988177776337,
            -0.03088102862238884,
            -0.29655390977859497,
            0.5306086540222168,
            0.1277260035276413,
            0.0034502437338232994,
            0.1002732366323471,
            0.020796146243810654
        ],
        "net_guide.net.0.bias.scale": [
            0.10415680706501007,
            0.10449453443288803,
            0.1027926579117775,
            0.10406307876110077,
            0.10091672092676163,
            0.10040455311536789,
            0.09837570786476135,
            0.10249747335910797,
            0.09730730950832367,
            0.10558617860078812,
            0.10083581507205963,
            0.10091857612133026,
            0.09424892067909241,
            0.10243590921163559,
            0.09750640392303467,
            0.0950431227684021,
            0.10326189547777176,
            0.10026872158050537,
            0.10547501593828201,
            0.1003393605351448,
            0.09541840851306915,
            0.09954959154129028,
            0.1024678573012352,
            0.09827244281768799,
            0.09614711999893188,
            0.09889568388462067,
            0.09853655099868774,
            0.10467501729726791,
            0.0987839326262474,
            0.09751524031162262,
            0.10271517187356949,
            0.09395010769367218
        ],
        "net_guide.net.2.weight.loc": [
            0.11720296740531921,
            -0.06754076480865479,
            -0.3319035470485687,
            0.008183400146663189,
            -0.15236520767211914,
            -0.30697137117385864,
            -0.17473648488521576,
            -0.07685782760381699,
            0.18054552376270294,
            -0.3016933500766754,
            0.035331130027770996,
            -0.2650124430656433,
            0.5424326658248901,
            0.04245823621749878,
            0.36738845705986023,
            -0.34794867038726807,
            -0.03978750482201576,
            0.2250814586877823,
            -0.14981092512607574,
            -0.31705671548843384,
            0.6635153293609619,
            0.1822555512189865,
            -0.17542071640491486,
            0.08058972656726837,
            -0.5949651598930359,
            0.03614532947540283,
            0.607384443283081,
            -0.07609070837497711,
            0.13311761617660522,
            0.4493955671787262,
            0.06702075898647308,
            -0.49107614159584045
        ],
        "net_guide.net.2.weight.scale": [
            0.0929868146777153,
            0.0929248034954071,
            0.09272845834493637,
            0.09364569932222366,
            0.09281910210847855,
            0.09272098541259766,
            0.09352808445692062,
            0.09366847574710846,
            0.09302622079849243,
            0.09582117199897766,
            0.09293965250253677,
            0.09353504329919815,
            0.09591328352689743,
            0.09295602887868881,
            0.0938711166381836,
            0.09319186955690384,
            0.0928703024983406,
            0.09452003240585327,
            0.09510777145624161,
            0.09240209311246872,
            0.09281653165817261,
            0.09430839121341705,
            0.0943194106221199,
            0.09456511586904526,
            0.09312812238931656,
            0.09437783062458038,
            0.09365670382976532,
            0.09357180446386337,
            0.09288473427295685,
            0.0933736190199852,
            0.0928347259759903,
            0.09263138473033905
        ],
        "net_guide.net.2.bias.loc": [
            -0.049134764820337296
        ],
        "net_guide.net.2.bias.scale": [
            0.09269538521766663
        ]
    },
    "mean_weight_scale": 0.09713554182617935,
    "min_weight_scale": 0.09240209311246872,
    "max_weight_scale": 0.10558617860078812
}