{
    "net.0.bias.loc": [
        0.2670319080352783,
        -1.028642177581787,
        0.572825014591217,
        0.4857828915119171,
        -1.4605419635772705,
        0.4730483889579773,
        0.6594662070274353,
        0.9325045347213745,
        -0.13813899457454681,
        -1.5469850301742554,
        -0.2544158101081848,
        0.4538637399673462,
        -0.5978358387947083,
        0.6563994288444519,
        1.09858238697052,
        -1.1258891820907593,
        0.09349046647548676,
        0.7715930342674255,
        0.028340816497802734,
        0.15985098481178284,
        0.17252515256404877,
        -1.579635500907898,
        0.04580574482679367,
        1.4880881309509277,
        1.7141460180282593,
        1.1359513998031616,
        0.3018602430820465,
        1.0375539064407349,
        -0.9053471684455872,
        -1.7858394384384155,
        -1.8127291202545166,
        1.8185862302780151
    ],
    "net.0.bias.scale": [
        0.05147456377744675,
        0.08015216886997223,
        0.14286038279533386,
        0.024645652621984482,
        0.02918364480137825,
        0.13940101861953735,
        0.07204156368970871,
        0.07264421880245209,
        0.10824242234230042,
        0.028781123459339142,
        0.06902465969324112,
        0.08508278429508209,
        0.2799799144268036,
        0.10131543129682541,
        0.1326688528060913,
        0.025526057928800583,
        0.08819340914487839,
        0.014177589677274227,
        0.06795550882816315,
        0.06729144603013992,
        0.08049581199884415,
        0.08520577102899551,
        0.11088766902685165,
        0.12654909491539001,
        0.04374001920223236,
        0.09138564765453339,
        0.01545767206698656,
        0.0844149962067604,
        0.1881149411201477,
        0.2864297330379486,
        0.17503854632377625,
        0.15691706538200378
    ],
    "net.0.weight.loc": [
        -1.1508325338363647,
        -0.699392557144165,
        0.6668946743011475,
        0.6874666810035706,
        1.4963806867599487,
        -0.8035669326782227,
        0.18095825612545013,
        1.0573686361312866,
        -2.0512888431549072,
        1.6078723669052124,
        -1.7718087434768677,
        0.2799341380596161,
        -0.40230199694633484,
        -0.8793489933013916,
        0.37230536341667175,
        1.5289393663406372,
        -0.6498118042945862,
        -1.0450114011764526,
        -0.5298662781715393,
        -1.9012550115585327,
        0.804655909538269,
        -0.859866738319397,
        -1.1656708717346191,
        -1.2029589414596558,
        1.1276172399520874,
        1.0499331951141357,
        1.5487756729125977,
        0.773792564868927,
        -0.768643319606781,
        -0.6093410849571228,
        0.5596897602081299,
        1.6462153196334839
    ],
    "net.0.weight.scale": [
        0.09694331884384155,
        0.13174976408481598,
        0.11716108024120331,
        0.08856672048568726,
        0.06752236187458038,
        0.021928993985056877,
        0.05474241077899933,
        0.08684198558330536,
        0.03287346661090851,
        0.1881456971168518,
        0.043946463614702225,
        0.0558207742869854,
        0.24461248517036438,
        0.030935337767004967,
        0.15537646412849426,
        0.07725818455219269,
        0.01380532793700695,
        0.11067534238100052,
        0.013763061724603176,
        0.031211748719215393,
        0.01502571813762188,
        0.10371886938810349,
        0.04841507598757744,
        0.09375330060720444,
        0.06159404665231705,
        0.02738293446600437,
        0.01674981787800789,
        0.18194253742694855,
        0.05125618726015091,
        0.0676785483956337,
        0.0694165900349617,
        0.11815876513719559
    ],
    "net.2.bias.loc": [
        -0.3319065272808075
    ],
    "net.2.bias.scale": [
        0.04744485393166542
    ],
    "net.2.weight.loc": [
        1.6800612211227417,
        1.5101430416107178,
        -1.7930052280426025,
        -1.3983303308486938,
        -0.35139569640159607,
        -1.3945504426956177,
        1.216191053390503,
        -1.574570894241333,
        -1.2028512954711914,
        -1.9146530628204346,
        -1.2629331350326538,
        1.6000555753707886,
        1.5898810625076294,
        1.2198548316955566,
        1.3809605836868286,
        1.7161710262298584,
        -0.6019920110702515,
        0.6476052403450012,
        1.6796295642852783,
        0.43409356474876404,
        1.931344747543335,
        0.9392406940460205,
        1.117512583732605,
        -0.9313119649887085,
        0.7407053709030151,
        0.070806585252285,
        -0.5030300617218018,
        -1.212781548500061,
        -1.1705870628356934,
        -1.6587785482406616,
        1.4584453105926514,
        1.176206350326538
    ],
    "net.2.weight.scale": [
        0.013216695748269558,
        0.05704539269208908,
        0.15729379653930664,
        0.09355352073907852,
        0.022456571459770203,
        0.014545788057148457,
        0.211060032248497,
        0.10962311923503876,
        0.02835761569440365,
        0.07015848159790039,
        0.1515035331249237,
        0.08044978231191635,
        0.03606560081243515,
        0.09205103665590286,
        0.06295175105333328,
        0.06470610946416855,
        0.036747343838214874,
        0.09272785484790802,
        0.018819907680153847,
        0.0440821647644043,
        0.0427064448595047,
        0.08427596837282181,
        0.12023334950208664,
        0.01938430778682232,
        0.08037368953227997,
        0.09976350516080856,
        0.1818332076072693,
        0.05806902050971985,
        0.030156679451465607,
        0.2012641727924347,
        0.23055528104305267,
        0.08992486447095871
    ]
}