{
    "net.0.bias.loc": [
        0.33940398693084717,
        -1.0496792793273926,
        0.5739895105361938,
        0.5344058275222778,
        -1.2418149709701538,
        0.7903110980987549,
        1.7549651861190796,
        1.0516005754470825,
        -0.017658667638897896,
        -1.1189767122268677,
        -0.18749764561653137,
        -0.173934206366539,
        -0.24144360423088074,
        0.16732540726661682,
        1.157503604888916,
        -1.3569285869598389,
        0.4906238615512848,
        0.630126416683197,
        -0.5418989062309265,
        0.12995189428329468,
        0.022253697738051414,
        -1.5731115341186523,
        -0.300302654504776,
        1.8939765691757202,
        1.4153358936309814,
        1.1047190427780151,
        0.4476196765899658,
        1.2177841663360596,
        -0.4791921377182007,
        -2.568106174468994,
        -2.101924419403076,
        1.657118797302246
    ],
    "net.0.bias.scale": [
        0.16343417763710022,
        0.24820442497730255,
        0.1641215682029724,
        0.16875194013118744,
        0.33679547905921936,
        0.3847044110298157,
        1.2903621196746826,
        0.25878778100013733,
        0.16671538352966309,
        0.5221042633056641,
        0.19386149942874908,
        0.7577409744262695,
        0.42172345519065857,
        0.5842828154563904,
        0.21616217494010925,
        0.3370886743068695,
        0.45589548349380493,
        0.20283688604831696,
        0.6456292271614075,
        0.27273255586624146,
        0.24184860289096832,
        0.1154986023902893,
        0.40939125418663025,
        0.44840505719184875,
        0.4735799729824066,
        0.16322043538093567,
        0.27041131258010864,
        0.2587047219276428,
        0.4873380959033966,
        0.8759921193122864,
        0.3868645131587982,
        0.21627072989940643
    ],
    "net.0.weight.loc": [
        -1.3949427604675293,
        -0.8792542219161987,
        1.0917307138442993,
        0.8428364992141724,
        1.2750213146209717,
        -0.9143639206886292,
        0.2755033075809479,
        0.7401780486106873,
        -1.991418480873108,
        1.617277979850769,
        -1.6785264015197754,
        0.5334593057632446,
        -0.7320395708084106,
        -0.5997554659843445,
        0.24204428493976593,
        1.210484266281128,
        -0.7674513459205627,
        -1.0259944200515747,
        -0.6487491726875305,
        -1.6572985649108887,
        0.5215814113616943,
        -0.8487010598182678,
        -1.2887529134750366,
        -1.1175581216812134,
        1.163162350654602,
        1.1240637302398682,
        1.6262034177780151,
        1.0212640762329102,
        -0.6450821757316589,
        -0.6590909957885742,
        0.5940425992012024,
        1.7335031032562256
    ],
    "net.0.weight.scale": [
        0.3976902663707733,
        0.38423192501068115,
        0.4732753336429596,
        0.3641561269760132,
        0.2871605157852173,
        0.16356976330280304,
        0.1328192800283432,
        0.3552073538303375,
        0.19676893949508667,
        0.2341766059398651,
        0.19489918649196625,
        0.33600711822509766,
        0.38607510924339294,
        0.3640705943107605,
        0.26230698823928833,
        0.3935786485671997,
        0.31492799520492554,
        0.21982301771640778,
        0.20022040605545044,
        0.3127986788749695,
        0.33591094613075256,
        0.1890784353017807,
        0.27800843119621277,
        0.17757457494735718,
        0.1514233499765396,
        0.11546619981527328,
        0.1559460163116455,
        0.29987016320228577,
        0.2311929613351822,
        0.08523084223270416,
        0.09142939001321793,
        0.1975836306810379
    ],
    "net.2.bias.loc": [
        -0.7244591116905212
    ],
    "net.2.bias.scale": [
        0.5800817012786865
    ],
    "net.2.weight.loc": [
        1.4341424703598022,
        1.2320665121078491,
        -1.3540781736373901,
        -1.550550103187561,
        -0.012168831191956997,
        -1.5692634582519531,
        2.1929244995117188,
        -1.4526605606079102,
        -1.107107400894165,
        -1.2771210670471191,
        -0.8748549818992615,
        1.574012041091919,
        1.3969130516052246,
        1.1202760934829712,
        1.193440556526184,
        1.5398585796356201,
        -0.8741450905799866,
        0.20116962492465973,
        1.5284725427627563,
        0.603495717048645,
        1.9388829469680786,
        0.9806541800498962,
        1.5165265798568726,
        -1.3536347150802612,
        0.4111390709877014,
        0.04030292108654976,
        -0.3878009617328644,
        -1.1981838941574097,
        -1.0662944316864014,
        -1.8397928476333618,
        1.7945348024368286,
        0.8883075714111328
    ],
    "net.2.weight.scale": [
        0.2822697162628174,
        0.3597128987312317,
        0.5359441637992859,
        0.32180869579315186,
        0.4079892933368683,
        0.2501601278781891,
        1.2859928607940674,
        0.21448765695095062,
        0.16998043656349182,
        0.7386689782142639,
        0.4257675111293793,
        0.16347898542881012,
        0.23625919222831726,
        0.20367829501628876,
        0.3006674349308014,
        0.25790950655937195,
        0.29960042238235474,
        0.5091459155082703,
        0.22216136753559113,
        0.1993277668952942,
        0.14896826446056366,
        0.20867376029491425,
        0.44907617568969727,
        0.500272810459137,
        0.4123947322368622,
        0.13283570110797882,
        0.22504876554012299,
        0.18648575246334076,
        0.24744468927383423,
        0.28662288188934326,
        0.38547730445861816,
        0.33423087000846863
    ]
}